digraph Tree {
node [shape=box, style="filled, rounded", color="black", fontname="helvetica"] ;
edge [fontname="helvetica"] ;
0 [label=<ShelveLoc_Good &le; 0.5<br/>squared_error = 8.058<br/>samples = 240<br/>value = 7.464>, fillcolor="#f0b890"] ;
1 [label=<Price &le; 105.5<br/>squared_error = 6.019<br/>samples = 191<br/>value = 6.772>, fillcolor="#f2c09c"] ;
0 -> 1 [labeldistance=2.5, labelangle=45, headlabel="True"] ;
2 [label=<Age &le; 50.5<br/>squared_error = 6.04<br/>samples = 64<br/>value = 8.321>, fillcolor="#eeaf81"] ;
1 -> 2 ;
3 [label=<CompPrice &le; 101.5<br/>squared_error = 2.228<br/>samples = 23<br/>value = 10.327>, fillcolor="#ea985d"] ;
2 -> 3 ;
4 [label=<squared_error = 1.233<br/>samples = 4<br/>value = 8.602>, fillcolor="#eeac7c"] ;
3 -> 4 ;
5 [label=<squared_error = 1.679<br/>samples = 19<br/>value = 10.691>, fillcolor="#e99457"] ;
3 -> 5 ;
6 [label=<ShelveLoc_Bad &le; 0.5<br/>squared_error = 4.652<br/>samples = 41<br/>value = 7.195>, fillcolor="#f1bb95"] ;
2 -> 6 ;
7 [label=<Price &le; 90.5<br/>squared_error = 2.562<br/>samples = 28<br/>value = 8.073>, fillcolor="#efb185"] ;
6 -> 7 ;
8 [label=<squared_error = 1.57<br/>samples = 11<br/>value = 9.218>, fillcolor="#eca571"] ;
7 -> 8 ;
9 [label=<squared_error = 1.805<br/>samples = 17<br/>value = 7.332>, fillcolor="#f1ba92"] ;
7 -> 9 ;
10 [label=<squared_error = 3.922<br/>samples = 13<br/>value = 5.305>, fillcolor="#f5d1b6"] ;
6 -> 10 ;
11 [label=<ShelveLoc_Bad &le; 0.5<br/>squared_error = 4.19<br/>samples = 127<br/>value = 5.991>, fillcolor="#f4c9aa"] ;
1 -> 11 ;
12 [label=<Advertising &le; 13.5<br/>squared_error = 3.212<br/>samples = 84<br/>value = 6.662>, fillcolor="#f2c19e"] ;
11 -> 12 ;
13 [label=<CompPrice &le; 121.5<br/>squared_error = 2.899<br/>samples = 67<br/>value = 6.314>, fillcolor="#f3c5a4"] ;
12 -> 13 ;
14 [label=<squared_error = 1.735<br/>samples = 16<br/>value = 5.232>, fillcolor="#f6d1b7"] ;
13 -> 14 ;
15 [label=<Price &le; 125.5<br/>squared_error = 2.781<br/>samples = 51<br/>value = 6.654>, fillcolor="#f2c19e"] ;
13 -> 15 ;
16 [label=<Age &le; 48.5<br/>squared_error = 2.062<br/>samples = 22<br/>value = 7.489>, fillcolor="#f0b88f"] ;
15 -> 16 ;
17 [label=<squared_error = 1.308<br/>samples = 10<br/>value = 8.361>, fillcolor="#eeae80"] ;
16 -> 17 ;
18 [label=<squared_error = 1.529<br/>samples = 12<br/>value = 6.762>, fillcolor="#f2c09c"] ;
16 -> 18 ;
19 [label=<Income &le; 29.0<br/>squared_error = 2.396<br/>samples = 29<br/>value = 6.021>, fillcolor="#f4c8a9"] ;
15 -> 19 ;
20 [label=<squared_error = 1.02<br/>samples = 2<br/>value = 8.61>, fillcolor="#eeab7c"] ;
19 -> 20 ;
21 [label=<CompPrice &le; 147.5<br/>squared_error = 1.964<br/>samples = 27<br/>value = 5.829>, fillcolor="#f4cbad"] ;
19 -> 21 ;
22 [label=<squared_error = 1.424<br/>samples = 18<br/>value = 5.433>, fillcolor="#f5cfb4"] ;
21 -> 22 ;
23 [label=<squared_error = 2.102<br/>samples = 9<br/>value = 6.621>, fillcolor="#f2c29f"] ;
21 -> 23 ;
24 [label=<squared_error = 2.097<br/>samples = 17<br/>value = 8.031>, fillcolor="#efb286"] ;
12 -> 24 ;
25 [label=<CompPrice &le; 144.0<br/>squared_error = 3.503<br/>samples = 43<br/>value = 4.68>, fillcolor="#f7d8c1"] ;
11 -> 25 ;
26 [label=<CompPrice &le; 103.5<br/>squared_error = 2.523<br/>samples = 39<br/>value = 4.368>, fillcolor="#f8dbc6"] ;
25 -> 26 ;
27 [label=<squared_error = 0.065<br/>samples = 2<br/>value = 1.165>, fillcolor="#ffffff"] ;
26 -> 27 ;
28 [label=<Price &le; 154.0<br/>squared_error = 2.072<br/>samples = 37<br/>value = 4.541>, fillcolor="#f7d9c3"] ;
26 -> 28 ;
29 [label=<Age &le; 39.5<br/>squared_error = 1.518<br/>samples = 35<br/>value = 4.727>, fillcolor="#f7d7c0"] ;
28 -> 29 ;
30 [label=<squared_error = 0.847<br/>samples = 14<br/>value = 5.571>, fillcolor="#f5ceb1"] ;
29 -> 30 ;
31 [label=<Price &le; 117.5<br/>squared_error = 1.175<br/>samples = 21<br/>value = 4.165>, fillcolor="#f8ddca"] ;
29 -> 31 ;
32 [label=<squared_error = 0.311<br/>samples = 8<br/>value = 5.084>, fillcolor="#f6d3ba"] ;
31 -> 32 ;
33 [label=<squared_error = 0.868<br/>samples = 13<br/>value = 3.599>, fillcolor="#f9e4d4"] ;
31 -> 33 ;
34 [label=<squared_error = 0.578<br/>samples = 2<br/>value = 1.29>, fillcolor="#fffefd"] ;
28 -> 34 ;
35 [label=<squared_error = 2.837<br/>samples = 4<br/>value = 7.725>, fillcolor="#f0b58b"] ;
25 -> 35 ;
36 [label=<Price &le; 135.0<br/>squared_error = 6.843<br/>samples = 49<br/>value = 10.165>, fillcolor="#ea9a60"] ;
0 -> 36 [labeldistance=2.5, labelangle=-45, headlabel="False"] ;
37 [label=<Price &le; 121.0<br/>squared_error = 3.907<br/>samples = 39<br/>value = 11.057>, fillcolor="#e89051"] ;
36 -> 37 ;
38 [label=<Education &le; 15.5<br/>squared_error = 2.59<br/>samples = 24<br/>value = 11.789>, fillcolor="#e68844"] ;
37 -> 38 ;
39 [label=<squared_error = 2.259<br/>samples = 16<br/>value = 12.39>, fillcolor="#e58139"] ;
38 -> 39 ;
40 [label=<squared_error = 1.084<br/>samples = 8<br/>value = 10.586>, fillcolor="#e99559"] ;
38 -> 40 ;
41 [label=<squared_error = 3.786<br/>samples = 15<br/>value = 9.886>, fillcolor="#eb9d65"] ;
37 -> 41 ;
42 [label=<squared_error = 3.079<br/>samples = 10<br/>value = 6.685>, fillcolor="#f2c19e"] ;
36 -> 42 ;
}